
//<![CDATA[

// a few things don't have var in front of them - they update already existing variables the game needs
lanesSide = 3;
patchesAhead = 20;
patchesBehind = 2;
trainIterations = 500000;

// the number of other autonomous vehicles controlled by your network
otherAgents = 0; // max of 10

var num_inputs = (lanesSide * 2 + 1) * (patchesAhead + patchesBehind);
var num_actions = 5;
var temporal_window = 0;
var network_size = num_inputs * temporal_window + num_actions * temporal_window + num_inputs;

var layer_defs = [];
    layer_defs.push({
    type: 'input',
    out_sx: 1,
    out_sy: 1,
    out_depth: network_size
});
layer_defs.push({
    type: 'fc',
    num_neurons: 10,
    activation: 'relu'
});
layer_defs.push({
    type: 'regression',
    num_neurons: num_actions
});

var tdtrainer_options = {
    learning_rate: 0.001,
    momentum: 0.0,
    batch_size: 64,
    l2_decay: 0.01
};

var opt = {};
opt.temporal_window = temporal_window;
opt.experience_size = 30000;
opt.start_learn_threshold = 5000;
opt.gamma = 0.7;
opt.learning_steps_total = 10000;
opt.learning_steps_burnin = 1000;
opt.epsilon_min = 0.05;
opt.epsilon_test_time = 0.0;
opt.layer_defs = layer_defs;
opt.tdtrainer_options = tdtrainer_options;

brain = new deepqlearn.Brain(num_inputs, num_actions, opt);

learn = function (state, lastReward) {
brain.backward(lastReward);
var action = brain.forward(state);

draw_net();
draw_stats();

return action;
}

//]]>

/*###########*/
if (brain) {
brain.value_net.fromJSON({"layers":[{"out_depth":154,"out_sx":1,"out_sy":1,"layer_type":"input"},{"out_depth":10,"out_sx":1,"out_sy":1,"layer_type":"fc","num_inputs":154,"l1_decay_mul":0,"l2_decay_mul":1,"filters":[{"sx":1,"sy":1,"depth":154,"w":{"0":-0.06383892462027367,"1":0.0764425387112599,"2":0.0019197044100006397,"3":-0.061492153161157526,"4":-0.16206165654910787,"5":0.007552687789604111,"6":0.013198011551330432,"7":0.0030133465506530406,"8":0.01300809118468097,"9":-0.19749008134851673,"10":0.0969468522485626,"11":0.04721774657255349,"12":-0.08399403345053034,"13":0.05818841313315351,"14":0.03767003659600033,"15":-0.18873964376917493,"16":0.025993038012416068,"17":-0.10308640588836192,"18":-0.0028907114595603657,"19":-0.005445136867743364,"20":0.10024495855759746,"21":-0.13848224504749482,"22":-0.09893302126990607,"23":-0.08193523234183099,"24":-0.10548817160445274,"25":-0.08440445071055215,"26":0.1306599172177893,"27":-0.08280151481554572,"28":-0.010522689114502335,"29":-0.05204277789452008,"30":0.013580364282732441,"31":0.0537084085999615,"32":-0.08257070012167039,"33":-0.18371147920820707,"34":-0.011458287387397553,"35":0.1713885045296574,"36":0.02326181829082352,"37":-0.04155949324346179,"38":-0.03970790659633543,"39":-0.09171207521495793,"40":-0.021956183591051157,"41":0.01971803114070185,"42":0.021039559446023554,"43":0.025105821725460074,"44":0.03141031652485228,"45":-0.054805304332062627,"46":-0.02703929557878206,"47":0.09898172465731533,"48":-0.05629052505984944,"49":-0.021252732347732534,"50":-0.03753848386516615,"51":-0.056004511482106424,"52":-0.06418768519041328,"53":-0.14124187867588395,"54":0.025346515017982005,"55":0.042725910140290015,"56":0.08683538698054666,"57":-0.09932960068907329,"58":0.096711325512129,"59":-0.034237889760202936,"60":0.10888833085593476,"61":-0.06990069447775704,"62":0.0895260738148543,"63":0.06367178947788506,"64":-0.05489779824821202,"65":-0.09880903127440843,"66":-0.04646838155411825,"67":-0.03199678935875556,"68":-0.0977137482377109,"69":-0.01859695070470536,"70":-0.1801921933123203,"71":-0.06273555680764366,"72":-0.03156879193649108,"73":-0.0927757363505384,"74":-0.008759769222751504,"75":-0.09842364719504437,"76":0.1345032744028514,"77":0.08560922220363286,"78":-0.04873831728014197,"79":0.026171889046348863,"80":0.005294947484573943,"81":0.009897605354066422,"82":-0.06472041549049139,"83":0.22191225717907365,"84":0.14741097747488782,"85":-0.10759321523082413,"86":-0.010205197681463598,"87":0.09725754943934266,"88":0.0020405335089752658,"89":-0.08891533023260831,"90":0.04401239024291036,"91":-0.08074192510719481,"92":-0.0798975403519149,"93":-0.04089839544935119,"94":-0.00837856838541824,"95":-0.04411372127939448,"96":-0.08268538942386441,"97":0.0573062495282702,"98":0.08464054481105375,"99":0.13587785170262584,"100":0.001777984501514838,"101":-0.04843658820006623,"102":-0.016271010156437244,"103":-0.00932053693506422,"104":-0.06628435698390688,"105":0.07371538932815251,"106":-0.05216927831430296,"107":-0.05802394892648975,"108":-0.06298895567325051,"109":0.07826603340851747,"110":-0.0935022296111929,"111":-0.056953487871715294,"112":-0.05592270777357065,"113":-0.0626768970990555,"114":-0.0828116430685162,"115":-0.08681566882168412,"116":-0.06934689706938812,"117":0.09118908437893491,"118":-0.0010114292444029006,"119":-0.04484201591986398,"120":-0.08358978359166314,"121":-0.06333126667105164,"122":0.00976188584231929,"123":0.026161918123523975,"124":-0.03291387255342316,"125":-0.07617999537204996,"126":0.10615901775125137,"127":0.06365256415711147,"128":0.03943849459802564,"129":0.03180494396440353,"130":0.07593365678230954,"131":0.06689857792031657,"132":-0.10089998378330067,"133":0.014327983053139277,"134":-0.04319980001859189,"135":-0.0338026732831943,"136":-0.034311856608693445,"137":-0.1217723313433917,"138":0.024561032016073174,"139":-0.10445404809944439,"140":-0.08096982279246537,"141":0.028919276820990963,"142":-0.06700415038838842,"143":-0.05389573882423292,"144":0.041796552448681384,"145":-0.09668848327338647,"146":0.053495429515531386,"147":0.11620090043013523,"148":0.02390727602305477,"149":0.029716396315927422,"150":-0.02837231384881503,"151":-0.08995194712647975,"152":0.021885321517045787,"153":0.027001403445104356}},{"sx":1,"sy":1,"depth":154,"w":{"0":-0.15458840842293742,"1":-0.11276245217715443,"2":-0.04750379757561479,"3":-0.10006186474534624,"4":0.018291625941372704,"5":0.06913932161509874,"6":0.06267885470958715,"7":-0.09263535198747187,"8":-0.051976914560259074,"9":-0.015230636100292986,"10":-0.12004008681523207,"11":-0.06726186051684363,"12":-0.025245654227621334,"13":0.0024450482333154312,"14":0.009193641207032947,"15":-0.0314586323236282,"16":0.08374327083269667,"17":0.0016057532081402777,"18":0.0033559479529134194,"19":-0.08076561087373872,"20":0.07376932031458118,"21":-0.06823165121582185,"22":0.015305998733598574,"23":-0.11199398151000768,"24":-0.20416688676349368,"25":-0.049417318189818926,"26":0.009901325186565625,"27":-0.08206148910842637,"28":-0.09788981251240282,"29":-0.06336180642778498,"30":-0.10180200077560976,"31":-0.04302139715517596,"32":-0.0975678383345098,"33":0.004508346087785805,"34":0.13243118422531802,"35":-0.05179712991186368,"36":-0.11202038259457874,"37":-0.048408193501702584,"38":-0.10577014584678118,"39":0.0703867959832658,"40":0.024883905994546207,"41":-0.038324771820929714,"42":-0.1376572381764655,"43":0.017821728091237603,"44":-0.16586866887260346,"45":-0.2337458344891993,"46":-0.005721864994487001,"47":-0.13359113249073773,"48":0.06530296412350135,"49":0.020563354902308314,"50":-0.11137183520828722,"51":-0.15058612557028808,"52":-0.17605098075241615,"53":0.01690607818817426,"54":0.03773330355433833,"55":-0.02503831777446325,"56":-0.08365258328762173,"57":-0.07246935293399695,"58":-0.07078905872693508,"59":0.08143166063590412,"60":-0.035653612546054696,"61":-0.07316662132177519,"62":-0.009156406987620581,"63":-0.15943884091429042,"64":-0.08052142007770681,"65":-0.0954542089533854,"66":-0.08174236048223352,"67":-0.06183075107617371,"68":-0.06029054451826985,"69":0.021904448907882956,"70":-0.03868306029159327,"71":-0.11359166917843866,"72":-0.03361573118607799,"73":0.1970417627771807,"74":0.055009183058537296,"75":0.037622145865716675,"76":0.02627530555426246,"77":-0.08232610135286109,"78":-0.17063407399139743,"79":-0.04557826710192762,"80":0.14007583868868295,"81":-0.01770659823066882,"82":0.03820698105881377,"83":0.04004082682090597,"84":-0.055396975867826756,"85":-0.03834975241381933,"86":-0.16456227923599742,"87":0.032330341186892673,"88":0.016129206253101127,"89":-0.04446698977088826,"90":-0.05068689572379909,"91":-0.12180759242347015,"92":-0.11205916231194482,"93":-0.08698439657832537,"94":0.34559019728307727,"95":-0.05101576503751089,"96":0.01334614499209365,"97":0.06302414605194334,"98":-0.049678953585182505,"99":-0.06962045782084891,"100":0.08578218417415577,"101":0.19643505428758803,"102":0.10343021841997553,"103":0.022840253441795983,"104":0.00810940257972356,"105":-0.022890012482640245,"106":-0.09163893101110851,"107":0.026559251988887124,"108":0.16033546500368487,"109":0.09934212792680724,"110":0.007751388356564294,"111":0.16498460001856727,"112":-0.022611315005959004,"113":0.017674613191878824,"114":-0.07198113826202553,"115":0.20765625941212562,"116":-0.07713077258170671,"117":-0.012590253908488702,"118":-0.058922843495175584,"119":-0.12704526053676432,"120":-0.12556188140003854,"121":0.07933626875873687,"122":-0.06119660323701132,"123":-0.0034706075140851322,"124":0.042634019340122356,"125":-0.023821352199563568,"126":-0.01541917416373779,"127":-0.15748925058710306,"128":0.1114800384605491,"129":-0.21289476633057283,"130":0.02030845592664081,"131":-0.07255046412850898,"132":0.0860667238001624,"133":-0.010900871008331271,"134":-0.02306370650784294,"135":-0.008219073265137274,"136":-0.20488859581217722,"137":-0.030987732599642038,"138":0.06309838487969854,"139":0.0972319073985862,"140":0.02220866615210882,"141":-0.09619176915840602,"142":0.05657541852889206,"143":0.020188167766144165,"144":0.013140989210576456,"145":-0.0642375596554648,"146":0.0070851892624404925,"147":-0.19241602139100278,"148":-0.10161340739811829,"149":0.0378347298614336,"150":-0.15483501987707046,"151":-0.019952945014008336,"152":0.05059330831743461,"153":-0.027519212241177413}},{"sx":1,"sy":1,"depth":154,"w":{"0":-0.015970045368496336,"1":-0.028953307270148585,"2":-0.023106146915748426,"3":-0.16710037258063792,"4":-0.08345099710273429,"5":0.053149788389607835,"6":-0.017516711620894063,"7":-0.035249657777057956,"8":-0.045860416392979435,"9":0.034462110095259124,"10":0.007430338413571779,"11":-0.08084389223889905,"12":0.004263661251372176,"13":0.04459313646757316,"14":0.005452275351607528,"15":0.04792949962575188,"16":-0.0012553977141781711,"17":-0.052999531253662205,"18":-0.0348626336906754,"19":-0.0071146970554194595,"20":0.018807330265821647,"21":-0.021473765890986783,"22":0.021513598898275886,"23":0.03896682397050887,"24":-0.01883854219233049,"25":-0.061385531539958134,"26":0.006319670129487927,"27":0.049653606925931765,"28":-0.10283345792795887,"29":-0.0333235296362279,"30":-0.014652555763513687,"31":-0.11219729100700725,"32":-0.1742592275703461,"33":0.05010535061836754,"34":-0.007400410299901513,"35":0.017646621578815247,"36":0.03015508362225727,"37":0.050577983490164326,"38":0.11356649251268999,"39":-0.08020283043585924,"40":-0.032688005833922354,"41":-0.004656979014552638,"42":0.06109677449995324,"43":0.05899913696371506,"44":0.06291139805334474,"45":0.0049062744297747665,"46":-0.1295968875732117,"47":-0.04057339213352191,"48":0.0006819225251314248,"49":-0.011188162328210322,"50":-0.024037023204316246,"51":0.03870918441843668,"52":-0.019245977920518395,"53":-0.11355583535523137,"54":-0.006552356128607185,"55":-0.084740026697177,"56":0.026977247180090216,"57":0.0415421252677288,"58":0.08109181987059111,"59":-0.016103728402631003,"60":-0.19691516922386582,"61":0.023733213848754042,"62":-0.013022258265955473,"63":0.04033754121323071,"64":0.022633700108292267,"65":-0.047780986538323654,"66":0.31594631329437667,"67":-0.1721241162949886,"68":-0.02725823162719532,"69":0.06551174007690536,"70":0.013683660855574521,"71":0.018841920537983545,"72":0.11367995539235283,"73":0.47208232391076493,"74":-0.39794428656256414,"75":-0.007862341780296924,"76":-0.07297018354622105,"77":-0.0579711544704573,"78":-0.003944792004751511,"79":-0.045356218340262704,"80":0.5195201034501982,"81":-0.24684953879752045,"82":0.0024221588464014756,"83":-0.013373235565734746,"84":0.02821372022454227,"85":0.03212966971350396,"86":0.10832408196686591,"87":0.11429581763607193,"88":-0.13054698455362584,"89":-0.04240471108879808,"90":-0.00957184812386303,"91":0.024411715166045705,"92":-0.00048437941437488895,"93":-0.11151986764593713,"94":0.6728702434461045,"95":-0.1914025790317426,"96":-0.040807034364191225,"97":-0.0076942356898451894,"98":0.00841000623665018,"99":0.07396002127462487,"100":-0.052637853366816305,"101":0.6520346681666093,"102":0.06533806227834736,"103":-0.004532598700648439,"104":0.020929462391806423,"105":0.01752692550016424,"106":0.0023773245016209055,"107":-0.03182409853552874,"108":0.57227792966898,"109":0.2821899400290073,"110":-0.0314462987930613,"111":-0.02853281776571083,"112":-0.08049150306086955,"113":0.06664435903755632,"114":-0.06954904783169417,"115":0.5335643408242384,"116":0.46213599610369877,"117":-0.06739484900404934,"118":-0.048324183495080116,"119":0.012547056424905686,"120":-0.036132359130899544,"121":0.06726567235908676,"122":-0.6237742095696499,"123":0.7294629381117961,"124":0.027817787196979176,"125":0.002625500898638428,"126":-0.020432053798630594,"127":-0.005598089902309558,"128":-0.017456840123047282,"129":-0.9002741209937599,"130":0.2803466335857228,"131":-0.024529205187140912,"132":-0.11239766727867319,"133":0.05580653009663414,"134":-0.03843675646630407,"135":-0.02234352110423141,"136":-0.744018314981697,"137":0.2376836897038941,"138":-0.013901024698756181,"139":0.009955306342313475,"140":-0.08679887496891446,"141":-0.061604147038619134,"142":-0.06669959178490764,"143":-0.11773931733739347,"144":0.38301696224302645,"145":-0.05954367418018501,"146":-0.0024036662820035113,"147":0.056030997358239014,"148":-0.030548213547846394,"149":-0.0013416488720744166,"150":0.03333414882647121,"151":0.9028795420999611,"152":-0.06060081226088617,"153":-0.005647775353276698}},{"sx":1,"sy":1,"depth":154,"w":{"0":0.05556925089933489,"1":-0.025395368189558225,"2":0.10234822206561428,"3":-0.014107672871094542,"4":0.0386325209024116,"5":0.0029796433842041955,"6":0.01026372395364633,"7":0.03271337060918082,"8":0.0624161728975108,"9":0.05103822782513002,"10":0.09397065865672724,"11":0.010076879547270856,"12":-0.03925835231663241,"13":0.020854271771306537,"14":0.0038523769760699937,"15":0.00819654944308734,"16":0.134150876178975,"17":0.04258533166749021,"18":-0.0366803793231308,"19":-0.02638086789831328,"20":-0.044693487521889584,"21":-0.051244745976090425,"22":-0.0011100870702213895,"23":0.1287582258321721,"24":0.041982847672021706,"25":0.03627899269632871,"26":0.025012980547518944,"27":-0.013279101530532118,"28":0.018958746040769393,"29":-0.052020004848352876,"30":-0.01580604260218595,"31":0.014060813943926933,"32":0.08330862325180449,"33":-0.02956231491944602,"34":-0.03280739599649597,"35":-0.05736136031987602,"36":0.028367827227802747,"37":0.1406282247850775,"38":0.12464090133110134,"39":0.030663529547499103,"40":0.011376154849714838,"41":-0.03541964524806546,"42":0.04021635209870516,"43":-0.14747612059605275,"44":0.045100645139090054,"45":-0.07212121782392682,"46":-0.1402832309734145,"47":0.025296752507507615,"48":0.015143477806762744,"49":-0.004404292571249478,"50":-0.06952808601093671,"51":0.12762674930470266,"52":0.08755435620381398,"53":0.05646724483892945,"54":-0.02599044699331413,"55":0.007737872346694121,"56":-0.02999243590990018,"57":-0.11958095085572386,"58":-0.031107652308730624,"59":-0.008168891355808044,"60":-0.12209020547307485,"61":-0.006932614004965758,"62":-0.04093431815502162,"63":-0.036071258160256296,"64":0.10891113681143944,"65":-0.04402775410120097,"66":-0.007769582636765381,"67":0.20964939825787154,"68":0.0443344978429575,"69":0.047874388363750714,"70":-0.0018643717352732755,"71":-0.04545624431023553,"72":0.0470915684226766,"73":0.18296929757386027,"74":-0.211841682394295,"75":0.0029488721888611693,"76":-0.021498673631723485,"77":-0.08828487754177394,"78":0.01069905281725897,"79":-0.17053996907457414,"80":0.11691127886023253,"81":-0.009577602866232488,"82":-0.03025233912251067,"83":-0.011426715082079479,"84":0.06076788928933261,"85":-0.11015689402024072,"86":-0.17754822830255917,"87":-0.01267158828011165,"88":-0.06613236028465255,"89":-0.0922732400784458,"90":-0.050826816381479324,"91":0.06085547543859321,"92":-0.01787232228770226,"93":0.09512577131588958,"94":0.27077713535576525,"95":0.37011363820865467,"96":-0.029303989483880695,"97":0.039278032455153045,"98":-0.0104091760906534,"99":-0.09677003489653743,"100":-0.01045587333970418,"101":0.2623562656791859,"102":0.6545743152706436,"103":0.06296855878180214,"104":-0.0641734721892041,"105":0.07689237549608283,"106":0.007967393883823603,"107":-0.05987276150991718,"108":0.14019440747687822,"109":0.43177377358602853,"110":0.03814477235948138,"111":-0.03527026023067612,"112":-0.09643784400057123,"113":-0.008737121704376552,"114":0.11217840810081349,"115":0.059788544651896265,"116":0.461218761827346,"117":0.04192366701839264,"118":-0.0373264553003738,"119":0.01833710341895061,"120":0.014852648635877657,"121":-0.18514846592000347,"122":-0.2312364925767301,"123":0.4388673911129465,"124":0.03688959954518846,"125":0.10426383429350142,"126":-0.046850974946967876,"127":-0.036095480847405305,"128":-0.039047877299603004,"129":-0.39745015438587616,"130":0.10320639734794189,"131":-0.0005907269512536883,"132":-0.14728660382465977,"133":0.040978996577986544,"134":0.031568761564923324,"135":0.03755828863985224,"136":-0.29564636178676296,"137":0.18500364993615234,"138":-0.016256593714313032,"139":0.0170999595637216,"140":0.04216594965392168,"141":0.005966199404952852,"142":0.1360486672831804,"143":-0.06521973912384524,"144":0.3514783400070341,"145":-0.018015022497849933,"146":0.005472933453213,"147":0.04767085090903395,"148":0.004783853624236361,"149":-0.10757145942492341,"150":0.043524808277856625,"151":0.790493727505226,"152":0.04234567747344431,"153":-0.0002217719855387262}},{"sx":1,"sy":1,"depth":154,"w":{"0":0.14437499933476636,"1":-0.015720995943835508,"2":0.1909159876820247,"3":0.12082474768007133,"4":0.019033929151606295,"5":0.00930655036069724,"6":0.0143754923138414,"7":0.04817572304322952,"8":0.05578434479899748,"9":-0.0095435742064952,"10":-0.0450565102874552,"11":-0.0696342897554391,"12":-0.02852245247707007,"13":0.01096424173987791,"14":0.021681875682317373,"15":-0.04501104245402019,"16":0.051057333944864676,"17":0.15806368727720413,"18":0.09869551904476223,"19":-0.047501449018918826,"20":-0.08275319462403487,"21":-0.04629279222596939,"22":0.00029377313368085593,"23":0.011813349698291438,"24":-0.08116612431183838,"25":0.08633273232711569,"26":0.012151101274752307,"27":-0.033650893023943536,"28":-0.03778516331215369,"29":0.034655781963064555,"30":-0.06915263815490105,"31":0.04073915656596018,"32":0.08396812217130706,"33":-0.013895136043309839,"34":-0.05533080300697764,"35":-0.016024508428791495,"36":0.016581573863266016,"37":-0.04304930919820099,"38":-0.12351415216562997,"39":-0.007734275756684006,"40":-0.005619311208107104,"41":0.01983342105576641,"42":0.021697985885873614,"43":-0.08789659409034298,"44":0.2011143892909271,"45":0.2534631709148762,"46":0.13213906989934324,"47":-0.0020848239564589463,"48":0.01925357663370724,"49":-0.014294475299452495,"50":-0.07385324102841012,"51":0.11952534419572726,"52":-0.07402091860938394,"53":0.05641883021446907,"54":-0.01647127771225134,"55":-0.0041826482579104375,"56":-0.017396469284760213,"57":0.05929245850309824,"58":-0.07030039142519603,"59":-0.07107707987566213,"60":-0.04473226423029296,"61":0.02908465421999661,"62":-0.0069141539081259825,"63":0.023227950444453766,"64":-0.012555889948394136,"65":-0.17652998492966707,"66":-0.1427213121631047,"67":-0.03023725660442617,"68":-0.10566268139738022,"69":0.0011435727716416653,"70":-0.03232261357461155,"71":-0.015888876539093388,"72":0.42494494256321846,"73":-0.8366540137804077,"74":0.09747287799400328,"75":0.013857780503236435,"76":0.014675286455446992,"77":-0.0876217625933344,"78":-0.05135398479059848,"79":0.18902342558430926,"80":-0.5086033199805367,"81":0.04241060589884138,"82":0.0006166666034797759,"83":-0.010700236585539626,"84":-0.0454246706293706,"85":0.043888672912072386,"86":0.04365224360738102,"87":-0.3134638337800013,"88":-0.07183109418621174,"89":0.02322161519970251,"90":-0.029349155652869222,"91":-0.06256484030799926,"92":-0.01521023268751808,"93":-0.1613715952566076,"94":-0.3680337660166431,"95":-0.08070907629066827,"96":0.04158661046282577,"97":0.03310959902986,"98":-0.024660221227657472,"99":-0.04475623804745863,"100":-0.27873730759081217,"101":-1.1345066842340898,"102":-0.022473874558371184,"103":-0.0068944872696429585,"104":0.0560830099920898,"105":-0.03465374170258243,"106":0.013208061373184081,"107":-0.13016548869568806,"108":-0.6660034290403154,"109":-0.022410056143136237,"110":0.01325740371176885,"111":-0.04651931702605995,"112":-0.07499780794862444,"113":-0.027631005217811755,"114":-0.145829943460031,"115":-0.46004998310356565,"116":-0.0813953699401252,"117":-0.026340744661563636,"118":-0.003907948584726873,"119":-0.02431781928014202,"120":-0.029215830914100408,"121":-0.5849855280410313,"122":0.5812779106152559,"123":-0.13749947760448503,"124":-0.019577113208245046,"125":-0.028591837517114138,"126":0.006792586289124408,"127":0.0840156113905434,"128":-0.11577093534754293,"129":1.1373476048723754,"130":-0.02727657216173762,"131":0.03257309626424988,"132":-0.0017158803713492863,"133":0.05542758815232638,"134":0.036124001134192424,"135":-0.13376281981840035,"136":1.1794641986986658,"137":0.020883353355419604,"138":-0.02934933771603064,"139":-0.07345658381547981,"140":0.04689031135417099,"141":0.034418571731910055,"142":-0.2326987910601104,"143":0.05853325554898662,"144":-0.07776871169173637,"145":-0.03793154616568056,"146":-0.05087617951716469,"147":0.05053367041352358,"148":-0.0060570922961888235,"149":-0.6743915103173576,"150":-0.11388882966652977,"151":-0.06305759744917763,"152":0.04555965509296969,"153":0.07651895938326247}},{"sx":1,"sy":1,"depth":154,"w":{"0":-0.014289890683642587,"1":-0.009806621061297323,"2":0.04615108481349449,"3":-0.016814440448375354,"4":0.05406861791858107,"5":0.06307778339785514,"6":-0.019754682940504673,"7":-0.008683202260309953,"8":-0.052371100370605606,"9":0.08478109019373396,"10":-0.019210625825622375,"11":-0.031025289831996705,"12":-0.018356291231085436,"13":-0.011784754487716945,"14":-0.006088527992828958,"15":0.057319223199643055,"16":0.013235818536755845,"17":-0.01497516681076898,"18":-0.007051936434382194,"19":0.02020593616962413,"20":0.05456334469433698,"21":-0.012070644335953815,"22":-0.00025745013636144503,"23":0.020165346187526856,"24":0.041809936949876475,"25":-0.0279168468085226,"26":0.0016345034219073646,"27":0.03375910648659265,"28":-0.09288620218207308,"29":0.04415076733831719,"30":0.008103002647257398,"31":0.03135103768757549,"32":0.0054498463780006095,"33":0.11067254324820057,"34":0.07980940049374648,"35":0.003173461698580495,"36":0.02720176012440349,"37":0.036695744674811966,"38":0.07950092867421293,"39":0.0835676255670182,"40":-0.010179646126884065,"41":-0.0833991631340362,"42":0.03857045390734579,"43":0.09582743417125786,"44":0.11291982462563697,"45":0.11959016083321913,"46":-0.11116576677422771,"47":-0.08241819821539711,"48":-0.0337161100697462,"49":-0.0019199276558510953,"50":-0.008956362256818489,"51":0.026890479438874633,"52":0.09361113144693159,"53":0.01834843005755408,"54":0.02057062368804389,"55":0.004872723010906114,"56":0.013454439368601861,"57":0.019283098049096805,"58":0.14550027958707973,"59":0.19629250323180147,"60":0.18270040472107552,"61":0.11199201569864406,"62":0.026263462256618755,"63":0.04069313845340977,"64":-0.01669128581829015,"65":0.03173858974070371,"66":0.2484304471042004,"67":0.17622803386660185,"68":0.019028335014762178,"69":0.03406465655437173,"70":0.014309773550117541,"71":0.06614462478623226,"72":0.1917203093159263,"73":0.43056347615183393,"74":-0.220047095050193,"75":-0.02873899450612104,"76":-0.034856937844506636,"77":-0.042547341600581365,"78":0.03623623927477973,"79":0.20028023104503348,"80":0.47353778060323054,"81":0.024306102614877128,"82":-0.03514742687490216,"83":-0.059155818227144795,"84":0.012903443074942345,"85":-0.022435413515565834,"86":0.296226101121489,"87":0.3941306627773547,"88":0.22620221741069332,"89":0.010909748257236894,"90":-0.037798149691247736,"91":0.11884904048547357,"92":-0.01713910318996513,"93":-0.014050795132534849,"94":0.5378580630494133,"95":0.09145439524806999,"96":-0.01176330880459707,"97":0.006244138140636333,"98":0.03209799198568031,"99":0.05163722416070275,"100":0.0226646267680741,"101":0.583014826515127,"102":0.4726458996841531,"103":0.024938629300583784,"104":0.07796852779918963,"105":0.010004616473547556,"106":-0.012303724938140394,"107":0.017903685751181384,"108":0.6383378103372923,"109":0.2768617364747485,"110":0.00951847534166914,"111":0.001718242203707195,"112":-0.14521945959392973,"113":0.061700558039790986,"114":-0.016663025374434932,"115":0.9730088913814403,"116":0.2336170400307127,"117":-0.07499437466137232,"118":-0.07393871477946964,"119":0.06055200206352119,"120":-0.07750101072011244,"121":0.2039043030231901,"122":-0.019662069512539505,"123":0.8496261502974403,"124":-0.07308458829916109,"125":0.017131700307843924,"126":0.001368375053838294,"127":-0.0012321077962187338,"128":0.04832587240165913,"129":-0.39974805357049153,"130":0.1512385488629395,"131":0.029521075114960618,"132":-0.014194089496902259,"133":-0.015493352235168054,"134":-0.015317738869549801,"135":-0.020229582509274514,"136":-0.6657811730357106,"137":0.15448331851603408,"138":0.060736716759044795,"139":0.022215186337846953,"140":-0.03743820619216098,"141":-0.05559971402645151,"142":-0.11817555858688576,"143":0.1425901393365181,"144":0.19968346928244315,"145":-0.03950081174008101,"146":-0.03620046367632814,"147":-0.04330726205480813,"148":-0.06889877147128629,"149":0.017898424379531402,"150":0.3184311774669759,"151":0.7658691589979884,"152":-0.11350820326665133,"153":-0.02159912830417406}},{"sx":1,"sy":1,"depth":154,"w":{"0":0.05411954335072384,"1":-0.0187916422278854,"2":-0.0295785945166026,"3":0.12222984048806662,"4":-0.0006612838988651527,"5":0.07611278828863788,"6":0.07278945325248481,"7":-0.09324051819242492,"8":0.0315860280936527,"9":-0.00824034299995665,"10":0.020514543651671078,"11":0.1142235347005392,"12":-0.0313372878656507,"13":0.0001266543177191423,"14":0.08191907650964358,"15":-0.023197410396480406,"16":-0.027169074392884296,"17":0.09629700145027074,"18":-0.0294473918112026,"19":-0.008365638920620248,"20":-0.01483094157122532,"21":-0.020653397959799886,"22":0.03270947781302149,"23":-0.04350019437698768,"24":0.06917177737269756,"25":-0.06353075393317077,"26":-0.1024145592501635,"27":-0.03125455589369566,"28":-0.0027321605144179344,"29":-0.06973987359133998,"30":-0.0621619722696751,"31":0.109148079182629,"32":0.012168031754922407,"33":0.08962922680817517,"34":-0.052208589438052004,"35":-0.02648150919082585,"36":0.02546348900906961,"37":0.0021587525407211093,"38":0.3493565254259851,"39":0.1990593256188772,"40":-0.03223103483272198,"41":0.07331448100280341,"42":0.0699206704272802,"43":-0.05316072599300752,"44":0.08282460056397167,"45":0.5193435012108139,"46":-0.026075283767417554,"47":-0.006248580902417396,"48":-0.024097129913623623,"49":-0.030289007359955503,"50":0.0015564974686642916,"51":-0.06927888780992475,"52":0.345202231150002,"53":-0.018893572303985924,"54":-0.09371628472179541,"55":-0.0308860121595729,"56":-0.09178649595410188,"57":-0.005310717361478006,"58":-0.3333025468027547,"59":0.2913506681731561,"60":-0.017004356261440614,"61":0.049727821578442036,"62":0.008188009562400872,"63":-0.07442625334654722,"64":-0.0007986899211193586,"65":-0.25920118846457496,"66":0.3055417244924955,"67":0.04076258402237224,"68":0.044601319094996934,"69":-0.036253422146320664,"70":0.09081881519433206,"71":-0.04030476072967542,"72":-0.13971551181576872,"73":0.2761343640172234,"74":0.06868559267873296,"75":0.01497715164877381,"76":-0.040358628407028196,"77":-0.05806446726786067,"78":-0.041618612724207034,"79":-0.36133720302484246,"80":0.18549346310389886,"81":0.03541650899011033,"82":-0.14913344941438983,"83":0.11066134709921019,"84":0.021605987986961405,"85":0.031190623761073448,"86":-0.40473070785041204,"87":0.1264058900245306,"88":-0.056963334611179535,"89":0.08016519962108343,"90":0.009408657092605091,"91":0.011656842514280556,"92":-0.06218234542569947,"93":-0.2834424474961421,"94":0.26414191359829703,"95":-0.045035823161405766,"96":0.02940569982728993,"97":-0.03238325009121805,"98":0.012815673715539645,"99":0.04178808686935724,"100":-0.5215720185236017,"101":0.2585499754802149,"102":0.06416455940520717,"103":0.12184340838482073,"104":-0.024155505339122942,"105":0.002380179157160804,"106":0.014944017703179276,"107":-0.3601006721863343,"108":0.20370291365794005,"109":-0.0333282136851196,"110":-0.1119863374540202,"111":0.018373998730648974,"112":-0.020696293669888052,"113":0.018532278483747118,"114":-0.33018306031585776,"115":0.3703763429775027,"116":-0.01876697441772642,"117":0.017464957681419944,"118":0.044382113132659294,"119":0.007971904058282957,"120":-0.025873533816384103,"121":-0.4699171089981063,"122":0.07523166247211743,"123":-0.06478084450420361,"124":0.052594249492607055,"125":-0.04642754208365488,"126":0.0024929838442399868,"127":0.002167978519082577,"128":-0.397588148198719,"129":0.06740367135662322,"130":0.022704601772433726,"131":-0.02013667975414637,"132":-0.07079031104087641,"133":0.04529333885608921,"134":-0.0821247780387514,"135":-0.19200349877642184,"136":-0.11445425689462889,"137":-0.032860814864996715,"138":-0.09522193397067694,"139":-0.013309659726912787,"140":0.009531905498211533,"141":0.024696853908995356,"142":-0.11411841871302895,"143":0.19592856732570488,"144":-0.059473630826795944,"145":0.02483853571822032,"146":0.10698013322645755,"147":0.03430295605573907,"148":0.009644249955234562,"149":-0.24546458196195794,"150":-0.10168552275922765,"151":-0.0022710064507337657,"152":0.0035910481327507456,"153":-0.07916407132086506}},{"sx":1,"sy":1,"depth":154,"w":{"0":0.01974099244431958,"1":0.08007073714310996,"2":0.22103955093446814,"3":0.21051602616205556,"4":0.04225516007549798,"5":-0.03636298568156298,"6":-0.05179776977241107,"7":0.06587575789027146,"8":0.08520800781802475,"9":0.175638402789619,"10":0.07356825353631728,"11":-0.010871242990895716,"12":-0.02437991286290266,"13":-0.018252928368019415,"14":-0.044302433208344476,"15":0.012415953470640303,"16":0.1326937478619682,"17":0.0650823896369199,"18":0.04490283216945999,"19":0.007520398587463752,"20":-0.043709016919914745,"21":-0.022487284656227003,"22":-0.009071265704473674,"23":0.2025574641053209,"24":0.052108356884352836,"25":0.03186771362506481,"26":0.04959339016447329,"27":-0.10220235286016517,"28":0.1442345577251585,"29":0.03916611337992051,"30":0.10431144434443992,"31":0.1724017458674512,"32":0.06344647030577057,"33":-0.08620029496244591,"34":-0.06690326083850621,"35":-0.05971974983896031,"36":0.0887431142012901,"37":0.2032864005903602,"38":0.04383618707683522,"39":-0.14066710347217465,"40":0.04393449156846789,"41":-0.004541278736671024,"42":-0.07537553170105236,"43":-0.07855209350180319,"44":0.16977347726764086,"45":-0.03113015457604726,"46":0.02686340243195259,"47":0.09002709103803123,"48":0.04342714195450857,"49":0.011437866830789805,"50":0.0464447429366434,"51":0.2242836601782658,"52":0.20234036459478857,"53":0.04905027651335758,"54":0.03398702214661812,"55":-0.003978238920568808,"56":-0.02287927325940065,"57":-0.04506619403938202,"58":0.07131110348937064,"59":0.05177125324825815,"60":-0.07160096942519081,"61":-0.10214861494131393,"62":-0.014766687352601268,"63":-0.020723581647989972,"64":0.013023932515376124,"65":0.3214318164636961,"66":-0.12445343443134396,"67":-0.05132040101855646,"68":0.049732143241141086,"69":0.0449114023040112,"70":-0.0410628626189579,"71":0.03177560196751739,"72":0.4651536964662494,"73":-0.1003858442267097,"74":0.03907994785153838,"75":0.10257955607487805,"76":0.046541319640500116,"77":0.014736990735367996,"78":0.04312280132967393,"79":0.3750755525009,"80":-0.12625437263744324,"81":0.029332425206584235,"82":0.007595278706631815,"83":-0.09740573049837112,"84":-0.04625638702926253,"85":0.019476993735779317,"86":0.27954166344577297,"87":0.029572178714058144,"88":-0.1296935668465196,"89":-0.10105110057257562,"90":0.01546904814073517,"91":0.031206354370098964,"92":-0.04780739598861957,"93":0.36673975593993996,"94":-0.2579137545874632,"95":0.11585945743891089,"96":-0.06275817825816912,"97":0.05725124318666037,"98":-0.004699289741324088,"99":-0.06290405252489104,"100":0.12986585696043784,"101":-0.22110978027404993,"102":0.046928377920871914,"103":-0.004610539128663197,"104":-0.14879142397698486,"105":0.08925163975023771,"106":-0.0141969710157351,"107":0.2638536650571554,"108":-0.16181259583313562,"109":0.0752677380363418,"110":0.08510623928141442,"111":-0.04716078741547427,"112":-0.04607155589841265,"113":0.043550059181346475,"114":0.4301974736130652,"115":0.13884798857242434,"116":0.015504573028829243,"117":0.02995978725653544,"118":0.011795167655177043,"119":-0.04758981441175787,"120":0.02770527613763481,"121":0.13548696701545723,"122":0.5087359688757611,"123":-0.36896676398413814,"124":0.09370746074135226,"125":0.08627092100045022,"126":0.04769338017171724,"127":0.008141723486200481,"128":0.05024601292561486,"129":0.4889350349455144,"130":-0.1495421841772513,"131":-0.02319058747228283,"132":-0.11746434912725238,"133":-0.018955166843795484,"134":0.05071361733057188,"135":0.09260912781045477,"136":0.30923982888181595,"137":-0.04236993418135069,"138":-0.0208375832865671,"139":0.04465650360788804,"140":-0.019509428018885545,"141":0.11288637977516658,"142":0.19305926599129902,"143":0.06695352549712945,"144":0.06686559179261908,"145":0.08629291497107365,"146":-0.01325181135071487,"147":0.04251967822327641,"148":0.007446743462728172,"149":0.11576198422212006,"150":0.05588101127554227,"151":-0.2545099518271415,"152":0.10758141391656816,"153":0.01546629868315298}},{"sx":1,"sy":1,"depth":154,"w":{"0":0.02200957554372683,"1":-0.08477129708047182,"2":-0.05263119897061119,"3":-0.09964691891832256,"4":0.002257395436212851,"5":0.04169167645434445,"6":-0.03077829674054046,"7":0.000031970197855238995,"8":-0.11665197065751906,"9":-0.06575329898273036,"10":0.0028502088333637343,"11":-0.08403699521637771,"12":0.0813897227801331,"13":0.0077487417558952274,"14":-0.08718509094496733,"15":-0.09275256250467105,"16":-0.04277060812690219,"17":0.024861868751502467,"18":0.044618806021071475,"19":-0.07513073116810882,"20":0.06658387628481398,"21":-0.11091323626909279,"22":0.03730205193550087,"23":0.06943162878810778,"24":-0.060999520542809625,"25":-0.08471628999698164,"26":-0.06332788221216085,"27":0.14439209229157296,"28":-0.024422453792545283,"29":-0.09175582531529759,"30":-0.008573309172058915,"31":-0.03828863790937884,"32":0.05848575831898461,"33":0.10416687305297069,"34":0.07875480053165218,"35":0.03334592441258147,"36":-0.16154960614055416,"37":-0.010401914346770035,"38":-0.029513456266721118,"39":0.020281931582717853,"40":0.05339108262381758,"41":-0.035352897299083884,"42":-0.01929277461213718,"43":-0.10849833490598965,"44":-0.08939508600665239,"45":0.00505747130481312,"46":0.07473721348480235,"47":0.11088146617944263,"48":0.008500092937241169,"49":-0.058814295862743796,"50":-0.029079783025993414,"51":0.04411227485384636,"52":-0.12685973349993587,"53":0.09539524837829802,"54":-0.05013066452100245,"55":0.0026574254805602844,"56":-0.07155159369874124,"57":0.029563267420201003,"58":-0.11567990960278202,"59":-0.0036366501417914266,"60":-0.10054592125879229,"61":-0.025686230040587777,"62":-0.04748049751315849,"63":-0.035465957485773185,"64":-0.10084709812911176,"65":0.053041908662861376,"66":-0.13367679574623154,"67":0.1863467661551495,"68":-0.021596373127609394,"69":-0.05605353672195374,"70":-0.14184792314778652,"71":0.0908650053361076,"72":0.01955826057393147,"73":0.028821121661995255,"74":0.020842262831183546,"75":-0.03085265669186314,"76":-0.05758391680108435,"77":0.07506454228929255,"78":-0.08443443150172228,"79":-0.04799911918909768,"80":0.042752218304640065,"81":0.11510816839037072,"82":-0.05312599390133641,"83":0.07951159214271837,"84":0.05568521528262624,"85":-0.06938594666662028,"86":0.026891253345363565,"87":0.04891396543545819,"88":-0.014185614270745522,"89":0.05990368929454123,"90":0.05925938471269913,"91":-0.04311837546784301,"92":-0.035000870655667815,"93":-0.13093926709696027,"94":0.09097859848039398,"95":-0.09537422610308016,"96":-0.07590559278940033,"97":-0.036485847747441895,"98":-0.04660543059330778,"99":-0.11488069466245572,"100":-0.06994254106557381,"101":0.07884929066975511,"102":0.04544820732704822,"103":-0.056376580830878285,"104":-0.12031465086294948,"105":-0.06450639324664888,"106":-0.038234939709609256,"107":-0.14859788919188435,"108":-0.002848103233981791,"109":-0.02528841370999879,"110":-0.05544597453372158,"111":-0.03837441026010939,"112":-0.0505759804712223,"113":-0.0493089514091167,"114":0.02089248979598308,"115":0.02813960568240099,"116":-0.21089691132890767,"117":-0.04537840388952314,"118":-0.0035271271747048714,"119":-0.052714924587275655,"120":-0.10181312948442371,"121":-0.0495744040756919,"122":0.012786073157701814,"123":-0.08038553222499359,"124":-0.07067290753538587,"125":0.060186751689471865,"126":-0.0268235031041484,"127":-0.09636386786296404,"128":-0.08652123024771863,"129":0.0674416865729371,"130":-0.08645043283786132,"131":-0.00610499631348353,"132":0.05935119386737,"133":-0.05302611047357204,"134":-0.1405527759120663,"135":-0.15147759006263323,"136":0.020264577825253614,"137":0.0557702108601444,"138":-0.1134242073750523,"139":-0.07425214331238905,"140":0.08960843621533247,"141":-0.05533151642139655,"142":-0.06215773504367492,"143":-0.072903837319582,"144":0.10421512335747792,"145":-0.06145162592284968,"146":-0.032676773448959806,"147":-0.040117987180045875,"148":0.132687358429569,"149":-0.0366235852215202,"150":-0.06896833351139597,"151":-0.015263555118610848,"152":-0.005470759139642008,"153":-0.048503093072201284}},{"sx":1,"sy":1,"depth":154,"w":{"0":0.09929722350470094,"1":-0.06507013087468273,"2":0.06931847596331522,"3":-0.0017544867003095885,"4":-0.04497538149377784,"5":0.04899308527060937,"6":-0.003301311020752382,"7":0.006079973011492462,"8":0.04086402207592242,"9":0.028997774052517983,"10":0.04768148985075274,"11":-0.077531203880397,"12":-0.09856153886293399,"13":-0.0035166993172118105,"14":-0.028243944796497167,"15":-0.09373266314309792,"16":0.07122633566771727,"17":0.08385651046778173,"18":-0.0638963509931603,"19":0.024824819267947117,"20":0.12919495282013474,"21":-0.041031165918603764,"22":-0.08931193646617791,"23":-0.09023670915484841,"24":0.1377800263330197,"25":0.0863281111664255,"26":-0.08552067498394193,"27":-0.022898141853168998,"28":0.06858911801525,"29":-0.012488844311653535,"30":0.04614097614191587,"31":-0.02463126106800456,"32":0.029780225752112893,"33":0.08490131218901845,"34":0.08391476709078359,"35":-0.049021524157303216,"36":-0.06895524277053519,"37":0.046017649307978706,"38":0.10540623847987216,"39":-0.06481363359638755,"40":-0.09036178020369896,"41":-0.024038241747884423,"42":0.013445266232964275,"43":-0.05578629082884823,"44":0.03891683851377302,"45":0.012211645344811308,"46":0.025541736453296143,"47":-0.08643724355669534,"48":0.08372298039979488,"49":-0.03113625028382552,"50":-0.17882483682747025,"51":0.044220318701292276,"52":0.1220248286473057,"53":0.017441441927886173,"54":-0.052155945382343784,"55":0.018270399232325787,"56":-0.04395163637979516,"57":-0.09933492490801756,"58":0.004520340921428292,"59":-0.024596127801563495,"60":0.03786585054424713,"61":-0.0021741532979070877,"62":0.13540063805202807,"63":-0.05715742816612469,"64":-0.03313326418523593,"65":0.026199101234799193,"66":-0.011287991191481044,"67":0.03544530832148933,"68":-0.016667297427693756,"69":0.020483291536878345,"70":0.03614398864447916,"71":-0.16404057436387556,"72":0.11174649785721713,"73":0.04571312698631018,"74":-0.025987656532417545,"75":-0.0910814942346848,"76":-0.038914113792872365,"77":0.040074994365457445,"78":0.03826365615173255,"79":-0.009210396816145099,"80":0.12025528532234109,"81":0.11971304637832215,"82":-0.12158249978618837,"83":0.0032338733398289206,"84":0.09128861076629712,"85":-0.1852901285473493,"86":-0.00928904789413059,"87":0.10272656721452207,"88":0.03072229984863328,"89":-0.07558590887619025,"90":-0.038614161755672706,"91":-0.18460594450982734,"92":-0.04843920510739697,"93":0.03678764510217621,"94":0.3151433394924215,"95":0.03054788192709101,"96":0.04443212967936436,"97":0.08392088605089192,"98":-0.02030521584579032,"99":-0.099126842714845,"100":-0.06865512682834245,"101":0.1882825771190581,"102":0.08072884322267633,"103":0.011851543605086615,"104":-0.03772170907977282,"105":-0.04818095167124604,"106":-0.11673310250662576,"107":-0.15387244634693772,"108":0.22132159717563152,"109":0.07308384396498896,"110":-0.025998716300049674,"111":0.173680138200355,"112":0.11190502643500902,"113":-0.07320358464921455,"114":-0.10075636795787557,"115":0.10967786926168145,"116":0.028357142441142298,"117":0.0372982524880864,"118":-0.12035021873414577,"119":0.031864161430709824,"120":0.020587014724126166,"121":-0.10884201046938312,"122":0.03207833615988249,"123":-0.05819605617741851,"124":-0.059800499123874466,"125":-0.06790378954713235,"126":0.0029683089704173283,"127":-0.05617042483849191,"128":-0.06985073459410282,"129":0.06960524124717773,"130":-0.01077909235104205,"131":0.043918294484617884,"132":0.14403472552218013,"133":0.07052738275132983,"134":-0.06083183220813438,"135":-0.0940767434678837,"136":-0.03591026741439833,"137":0.05801643046869702,"138":-0.006270226708389346,"139":0.004788303998650372,"140":-0.053757583157199855,"141":-0.09652948158640308,"142":-0.08371866887426188,"143":0.008164564303499109,"144":0.146420521371678,"145":-0.05784501263068393,"146":-0.035206778305021044,"147":0.026682348980606157,"148":-0.03686327688924807,"149":-0.20958602325976247,"150":-0.09198330204322881,"151":0.01498673038840886,"152":0.015578133322846664,"153":-0.049431552554895834}}],"biases":{"sx":1,"sy":1,"depth":10,"w":{"0":0.08770921415422925,"1":0.10047379564496056,"2":-0.5658783900687083,"3":0.3432611084044414,"4":1.3991592417431347,"5":-1.7199499407347705,"6":-0.11277183958466344,"7":-0.17865627914131801,"8":0.07128201052271038,"9":0.08575455011245438}}},{"out_depth":10,"out_sx":1,"out_sy":1,"layer_type":"relu"},{"out_depth":5,"out_sx":1,"out_sy":1,"layer_type":"fc","num_inputs":10,"l1_decay_mul":0,"l2_decay_mul":1,"filters":[{"sx":1,"sy":1,"depth":10,"w":{"0":0.2174794595229907,"1":0.26950263959081594,"2":0.04729705852912466,"3":-0.28048811615282987,"4":-0.527517060286397,"5":0.7580745250754692,"6":0.08678331218312808,"7":-0.2819321339375412,"8":-0.31354650424254354,"9":-0.4172976813438458}},{"sx":1,"sy":1,"depth":10,"w":{"0":0.5486577857450107,"1":0.4048320932879054,"2":-0.056803729951839604,"3":-0.8842640670828233,"4":0.7262469216011546,"5":0.8447706580881366,"6":0.051355625100646014,"7":0.01559407214425728,"8":-0.5108014749037567,"9":-0.07792451295585982}},{"sx":1,"sy":1,"depth":10,"w":{"0":0.19501007908912327,"1":-0.09769422236757722,"2":-0.2229203518042999,"3":-0.265405954225754,"4":0.01009781611912951,"5":0.7419259896548067,"6":-0.04648807182476802,"7":-0.26894478381204434,"8":0.0830167372014233,"9":-0.19973144383003505}},{"sx":1,"sy":1,"depth":10,"w":{"0":-0.22594312250467516,"1":-0.9678029025724367,"2":0.07648044143867369,"3":-0.742402183826441,"4":-2.8299078086573526,"5":0.9334673698308051,"6":1.5858313772263448,"7":1.1359550850759237,"8":0.2575681356652551,"9":0.417618298430664}},{"sx":1,"sy":1,"depth":10,"w":{"0":-0.17969745741903465,"1":-0.4142426602112994,"2":-2.387719131883847,"3":1.1194302168155335,"4":-0.6150219525444706,"5":2.0996841940618847,"6":-0.08114665846879064,"7":-0.7606768490860293,"8":-0.4488023939882746,"9":-0.49754854037030355}}],"biases":{"sx":1,"sy":1,"depth":5,"w":{"0":0.08020430647303947,"1":0.46814218309977274,"2":0.11857692554471022,"3":-0.22162119071577044,"4":-0.833809553719775}}},{"out_depth":5,"out_sx":1,"out_sy":1,"layer_type":"regression","num_inputs":5}]});
}